<?xml version="1.0" encoding="UTF-8"?>
<smile version="1.0" id="sachs1_1000" numsamples="10000" discsamples="10000">
	<nodes>
		<cpt id="Erk">
			<state id="x1" />
			<state id="x2" />
			<state id="x3" />
			<probabilities>0.13 0.616 0.254</probabilities>
		</cpt>
		<cpt id="Akt">
			<state id="x1" />
			<state id="x2" />
			<state id="x3" />
			<parents>Erk</parents>
			<probabilities>0.7124681933842238 0.2849872773536896 0.002544529262086514 0.7995678011885466 0.1998919502971367 0.0005402485143165855 0.1141732283464567 0.5196850393700787 0.3661417322834646</probabilities>
		</cpt>
		<cpt id="Mek">
			<state id="x1" />
			<state id="x2" />
			<state id="x3" />
			<parents>Akt</parents>
			<probabilities>0.6439024390243903 0.3430894308943089 0.01300813008130081 0.5513698630136986 0.3424657534246575 0.1061643835616438 0.003546099290780142 0.05673758865248227 0.9397163120567376</probabilities>
		</cpt>
		<cpt id="PKA">
			<state id="x1" />
			<state id="x2" />
			<state id="x3" />
			<parents>Mek Erk Akt</parents>
			<probabilities>0.4594594594594595 0.4594594594594595 0.08108108108108109 0.6041666666666667 0.3854166666666668 0.01041666666666667 0.3333333333333333 0.3333333333333333 0.3333333333333333 0.003257328990228013 0.758957654723127 0.237785016286645 0.1428571428571428 0.8412698412698412 0.01587301587301587 0.3333333333333333 0.3333333333333333 0.3333333333333333 0.02083333333333333 0.8333333333333334 0.1458333333333333 0.004901960784313725 0.7401960784313726 0.2549019607843137 0.3333333333333333 0.3333333333333333 0.3333333333333333 0.2166666666666667 0.7666666666666667 0.01666666666666667 0.05555555555555556 0.888888888888889 0.05555555555555556 0.3333333333333333 0.3333333333333333 0.3333333333333333 0.02420856610800744 0.9739292364990688 0.00186219739292365 0.1159420289855072 0.8768115942028984 0.007246376811594201 0.3333333333333333 0.3333333333333333 0.3333333333333333 0.02222222222222222 0.8888888888888887 0.08888888888888886 0.006535947712418299 0.9477124183006534 0.0457516339869281 0.888888888888889 0.05555555555555556 0.05555555555555556 0.3333333333333333 0.3333333333333333 0.3333333333333333 0.6666666666666667 0.1666666666666667 0.1666666666666667 0.3333333333333333 0.3333333333333333 0.3333333333333333 0.8148148148148148 0.1481481481481481 0.03703703703703703 0.9583333333333334 0.02083333333333333 0.02083333333333333 0.3333333333333333 0.3333333333333333 0.3333333333333333 0.3333333333333333 0.3333333333333333 0.3333333333333333 0.8958333333333334 0.02083333333333333 0.08333333333333333 0.9925093632958802 0.003745318352059926 0.003745318352059926</probabilities>
		</cpt>
		<cpt id="Jnk">
			<state id="x1" />
			<state id="x2" />
			<state id="x3" />
			<parents>PKA</parents>
			<probabilities>0.3203883495145631 0.2572815533980582 0.4223300970873786 0.5322736030828515 0.4672447013487475 0.0004816955684007707 0.9647435897435898 0.03205128205128206 0.003205128205128205</probabilities>
		</cpt>
		<cpt id="PKC">
			<state id="x1" />
			<state id="x2" />
			<state id="x3" />
			<parents>PKA Mek Jnk</parents>
			<probabilities>0.8666666666666668 0.1166666666666667 0.01666666666666667 0.6851851851851852 0.2962962962962963 0.01851851851851852 0.9761904761904763 0.01190476190476191 0.01190476190476191 0.1481481481481481 0.8148148148148148 0.03703703703703703 0.1333333333333333 0.8333333333333333 0.03333333333333333 0.6666666666666667 0.1666666666666667 0.1666666666666667 0.9833333333333332 0.008333333333333331 0.008333333333333331 0.9761904761904763 0.01190476190476191 0.01190476190476191 0.9888888888888887 0.005555555555555554 0.005555555555555554 0.2723004694835681 0.7183098591549296 0.009389671361502348 0.1923076923076923 0.4945054945054945 0.3131868131868132 0.3333333333333333 0.3333333333333333 0.3333333333333333 0.2021505376344086 0.7956989247311828 0.002150537634408602 0.1702127659574468 0.6808510638297872 0.148936170212766 0.3333333333333333 0.3333333333333333 0.3333333333333333 0.1666666666666667 0.6666666666666667 0.1666666666666667 0.3333333333333333 0.3333333333333333 0.3333333333333333 0.3333333333333333 0.3333333333333333 0.3333333333333333 0.891156462585034 0.1054421768707483 0.003401360544217687 0.1111111111111111 0.4444444444444444 0.4444444444444444 0.3333333333333333 0.3333333333333333 0.3333333333333333 0.4444444444444444 0.4444444444444444 0.1111111111111111 0.1666666666666667 0.1666666666666667 0.6666666666666666 0.3333333333333333 0.3333333333333333 0.3333333333333333 0.6666666666666667 0.1666666666666667 0.1666666666666667 0.3333333333333333 0.3333333333333333 0.3333333333333333 0.3333333333333333 0.3333333333333333 0.3333333333333333</probabilities>
		</cpt>
		<cpt id="Raf">
			<state id="x1" />
			<state id="x2" />
			<state id="x3" />
			<parents>PKC PKA Mek</parents>
			<probabilities>0.2321428571428571 0.1964285714285714 0.5714285714285714 0.3333333333333333 0.5833333333333334 0.08333333333333333 0.002645502645502645 0.1216931216931217 0.8756613756613756 0.6236559139784946 0.03225806451612903 0.3440860215053764 0.2909090909090909 0.6181818181818182 0.09090909090909091 0.3333333333333333 0.3333333333333333 0.3333333333333333 0.8275862068965517 0.1494252873563218 0.02298850574712644 0.6666666666666667 0.1666666666666667 0.1666666666666667 0.1666666666666667 0.1666666666666667 0.6666666666666666 0.2916666666666667 0.04166666666666666 0.6666666666666666 0.1333333333333333 0.6 0.2666666666666667 0.3333333333333333 0.3333333333333333 0.3333333333333333 0.7160493827160495 0.2592592592592593 0.02469135802469136 0.3424657534246575 0.5799086757990868 0.0776255707762557 0.1666666666666667 0.6666666666666667 0.1666666666666667 0.8611111111111109 0.1111111111111111 0.02777777777777777 0.6666666666666667 0.1666666666666667 0.1666666666666667 0.3333333333333333 0.3333333333333333 0.3333333333333333 0.3333333333333333 0.3333333333333333 0.3333333333333333 0.3333333333333333 0.3333333333333333 0.3333333333333333 0.3333333333333333 0.3333333333333333 0.3333333333333333 0.9888888888888887 0.005555555555555554 0.005555555555555554 0.696969696969697 0.2878787878787879 0.01515151515151515 0.3333333333333333 0.3333333333333333 0.3333333333333333 0.6666666666666667 0.1666666666666667 0.1666666666666667 0.6666666666666667 0.1666666666666667 0.1666666666666667 0.3333333333333333 0.3333333333333333 0.3333333333333333</probabilities>
		</cpt>
		<cpt id="P38">
			<state id="x1" />
			<state id="x2" />
			<state id="x3" />
			<parents>PKC PKA</parents>
			<probabilities>0.3478260869565217 0.07608695652173914 0.5760869565217391 0.9391891891891893 0.05405405405405406 0.006756756756756757 0.7752808988764045 0.101123595505618 0.1235955056179775 0.4492753623188406 0.5362318840579711 0.0144927536231884 0.8024425287356323 0.1968390804597701 0.0007183908045977012 0.3333333333333333 0.25 0.4166666666666666 0.3333333333333333 0.3333333333333333 0.3333333333333333 0.8312757201646092 0.1646090534979424 0.00411522633744856 0.7777777777777777 0.1111111111111111 0.1111111111111111</probabilities>
		</cpt>
		<cpt id="PIP3">
			<state id="x1" />
			<state id="x2" />
			<state id="x3" />
			<probabilities>0.248 0.415 0.337</probabilities>
		</cpt>
		<cpt id="PIP2">
			<state id="x1" />
			<state id="x2" />
			<state id="x3" />
			<parents>PIP3</parents>
			<probabilities>0.8387096774193548 0.1008064516129032 0.06048387096774194 0.9228915662650603 0.03614457831325302 0.04096385542168675 0.7744807121661721 0.1691394658753709 0.05637982195845698</probabilities>
		</cpt>
		<cpt id="Plcg">
			<state id="x1" />
			<state id="x2" />
			<state id="x3" />
			<parents>PIP3 PIP2</parents>
			<probabilities>0.9182692307692308 0.04326923076923077 0.03846153846153846 0.05128205128205128 0.01282051282051282 0.9358974358974359 0.02083333333333333 0.02083333333333333 0.9583333333333334 0.9425587467362925 0.04699738903394256 0.01044386422976501 0.2 0.06666666666666667 0.7333333333333333 0.01851851851851852 0.01851851851851852 0.9629629629629628 0.8409669211195929 0.1577608142493639 0.001272264631043257 0.456140350877193 0.5087719298245614 0.03508771929824561 0.2166666666666667 0.01666666666666667 0.7666666666666667</probabilities>
		</cpt>
	</nodes>
	<extensions>
		<genie version="1.0" app="GeNIe This network was created in GeNIe Academic, which can be used for academic teaching and research purposes only" name="sachs1_1000">
			<node id="PKC">
				<name>PKC</name>
				<interior color="e5f6f7" />
				<outline color="000080" />
				<font color="000000" name="Arial" size="8" />
				<position>490 10 562 58</position>
			</node>
			<node id="PKA">
				<name>PKA</name>
				<interior color="e5f6f7" />
				<outline color="000080" />
				<font color="000000" name="Arial" size="8" />
				<position>298 10 370 58</position>
			</node>
			<node id="Raf">
				<name>Raf</name>
				<interior color="e5f6f7" />
				<outline color="000080" />
				<font color="000000" name="Arial" size="8" />
				<position>586 10 658 58</position>
			</node>
			<node id="Mek">
				<name>Mek</name>
				<interior color="e5f6f7" />
				<outline color="000080" />
				<font color="000000" name="Arial" size="8" />
				<position>202 10 274 58</position>
			</node>
			<node id="Erk">
				<name>Erk</name>
				<interior color="e5f6f7" />
				<outline color="000080" />
				<font color="000000" name="Arial" size="8" />
				<position>10 10 82 58</position>
			</node>
			<node id="Akt">
				<name>Akt</name>
				<interior color="e5f6f7" />
				<outline color="000080" />
				<font color="000000" name="Arial" size="8" />
				<position>106 10 178 58</position>
			</node>
			<node id="Jnk">
				<name>Jnk</name>
				<interior color="e5f6f7" />
				<outline color="000080" />
				<font color="000000" name="Arial" size="8" />
				<position>394 10 466 58</position>
			</node>
			<node id="P38">
				<name>P38</name>
				<interior color="e5f6f7" />
				<outline color="000080" />
				<font color="000000" name="Arial" size="8" />
				<position>586 74 658 122</position>
			</node>
			<node id="Plcg">
				<name>Plcg</name>
				<interior color="e5f6f7" />
				<outline color="000080" />
				<font color="000000" name="Arial" size="8" />
				<position>202 74 274 122</position>
			</node>
			<node id="PIP3">
				<name>PIP3</name>
				<interior color="e5f6f7" />
				<outline color="000080" />
				<font color="000000" name="Arial" size="8" />
				<position>10 74 82 122</position>
			</node>
			<node id="PIP2">
				<name>PIP2</name>
				<interior color="e5f6f7" />
				<outline color="000080" />
				<font color="000000" name="Arial" size="8" />
				<position>106 74 178 122</position>
			</node>
			<textbox>
				<caption>Input file: sachs1_1000.txt\nData rows: 1000\nElapsed time: 0.047s\n\nLearning algorithm: Greedy ThickThinning\nAlgorithm parameters:\nMax parent count: 8\nNo background knowledge\n\nScore: -7704.69\nEM Log Likelihood: -7117.19</caption>
				<font color="000000" name="Arial" size="8" />
				<position>10 142 208 296</position>
			</textbox>
		</genie>
	</extensions>
</smile>
