<?xml version="1.0" encoding="UTF-8"?>
<smile version="1.0" id="sachs1_500" numsamples="10000" discsamples="10000">
	<nodes>
		<cpt id="Raf">
			<state id="x1" />
			<state id="x2" />
			<state id="x3" />
			<probabilities>0.506 0.282 0.212</probabilities>
		</cpt>
		<cpt id="Mek">
			<state id="x1" />
			<state id="x2" />
			<state id="x3" />
			<parents>Raf</parents>
			<probabilities>0.7769028871391076 0.2217847769028871 0.001312335958005249 0.2765957446808511 0.6879432624113475 0.03546099290780141 0.3867924528301886 0.1226415094339623 0.4905660377358491</probabilities>
		</cpt>
		<cpt id="Erk">
			<state id="x1" />
			<state id="x2" />
			<state id="x3" />
			<parents>Mek</parents>
			<probabilities>0.220216606498195 0.631768953068592 0.148014440433213 0.09036144578313253 0.674698795180723 0.2349397590361446 0.01754385964912281 0.2105263157894737 0.7719298245614035</probabilities>
		</cpt>
		<cpt id="PKA">
			<state id="x1" />
			<state id="x2" />
			<state id="x3" />
			<parents>Raf Mek Erk</parents>
			<probabilities>0.08823529411764705 0.8823529411764706 0.02941176470588235 0.007751937984496124 0.7674418604651163 0.2248062015503876 0.009523809523809523 0.6095238095238095 0.3809523809523809 0.4666666666666667 0.4666666666666667 0.06666666666666667 0.008333333333333331 0.9833333333333332 0.008333333333333331 0.02380952380952381 0.9523809523809523 0.02380952380952381 0.3333333333333333 0.3333333333333333 0.3333333333333333 0.3333333333333333 0.3333333333333333 0.3333333333333333 0.3333333333333333 0.3333333333333333 0.3333333333333333 0.5416666666666667 0.4166666666666668 0.04166666666666667 0.01190476190476191 0.8690476190476192 0.1190476190476191 0.05555555555555555 0.3888888888888889 0.5555555555555556 0.2592592592592592 0.7037037037037036 0.03703703703703703 0.01990049751243781 0.9751243781094528 0.004975124378109454 0.05555555555555556 0.9305555555555556 0.01388888888888889 0.3333333333333333 0.3333333333333333 0.3333333333333333 0.7777777777777777 0.1111111111111111 0.1111111111111111 0.8333333333333334 0.08333333333333333 0.08333333333333333 0.8730158730158731 0.1111111111111111 0.01587301587301588 0.2666666666666667 0.7166666666666668 0.01666666666666667 0.1111111111111111 0.7777777777777777 0.1111111111111111 0.3333333333333333 0.5833333333333334 0.08333333333333333 0.1666666666666667 0.7916666666666669 0.04166666666666667 0.08333333333333333 0.8333333333333334 0.08333333333333333 0.6666666666666667 0.1666666666666667 0.1666666666666667 0.8484848484848484 0.1212121212121212 0.0303030303030303 0.9126984126984126 0.07936507936507935 0.007936507936507934</probabilities>
		</cpt>
		<cpt id="Jnk">
			<state id="x1" />
			<state id="x2" />
			<state id="x3" />
			<parents>PKA</parents>
			<probabilities>0.2608695652173913 0.3478260869565217 0.3913043478260869 0.5487465181058496 0.4484679665738162 0.002785515320334262 0.9866666666666666 0.006666666666666665 0.006666666666666665</probabilities>
		</cpt>
		<cpt id="PKC">
			<state id="x1" />
			<state id="x2" />
			<state id="x3" />
			<parents>PKA Raf Jnk</parents>
			<probabilities>0.7777777777777777 0.1111111111111111 0.1111111111111111 0.3333333333333333 0.5833333333333334 0.08333333333333333 0.6666666666666667 0.1666666666666667 0.1666666666666667 0.3333333333333333 0.3333333333333333 0.3333333333333333 0.7037037037037036 0.2592592592592592 0.03703703703703703 0.888888888888889 0.05555555555555556 0.05555555555555556 0.8840579710144928 0.1014492753623189 0.01449275362318841 0.8333333333333335 0.1515151515151515 0.01515151515151515 0.9784946236559141 0.01075268817204301 0.01075268817204301 0.1446540880503145 0.8522012578616353 0.003144654088050315 0.08080808080808081 0.5353535353535354 0.3838383838383839 0.3333333333333333 0.3333333333333333 0.3333333333333333 0.3059360730593607 0.6894977168949772 0.0045662100456621 0.2040816326530612 0.5918367346938775 0.2040816326530612 0.1666666666666667 0.1666666666666667 0.6666666666666666 0.4920634920634921 0.4920634920634921 0.01587301587301587 0.6666666666666666 0.3095238095238095 0.02380952380952381 0.3333333333333333 0.3333333333333333 0.3333333333333333 0.9166666666666666 0.07575757575757575 0.007575757575757574 0.3333333333333333 0.3333333333333333 0.3333333333333333 0.3333333333333333 0.3333333333333333 0.3333333333333333 0.9047619047619049 0.04761904761904762 0.04761904761904762 0.3333333333333333 0.3333333333333333 0.3333333333333333 0.3333333333333333 0.3333333333333333 0.3333333333333333 0.3333333333333333 0.3333333333333333 0.3333333333333333 0.3333333333333333 0.3333333333333333 0.3333333333333333 0.3333333333333333 0.3333333333333333 0.3333333333333333</probabilities>
		</cpt>
		<cpt id="Akt">
			<state id="x1" />
			<state id="x2" />
			<state id="x3" />
			<parents>PKA Erk</parents>
			<probabilities>0.6041666666666667 0.3854166666666668 0.01041666666666667 0.1166666666666667 0.8666666666666668 0.01666666666666667 0.007751937984496124 0.07751937984496124 0.9147286821705427 0.4637681159420289 0.5289855072463767 0.007246376811594202 0.8768406961178045 0.1218206157965194 0.001338688085676037 0.1990049751243781 0.7960199004975125 0.004975124378109453 0.6666666666666667 0.1666666666666667 0.1666666666666667 0.9191919191919192 0.07070707070707072 0.0101010101010101 0.2549019607843137 0.7254901960784313 0.0196078431372549</probabilities>
		</cpt>
		<cpt id="P38">
			<state id="x1" />
			<state id="x2" />
			<state id="x3" />
			<parents>PKC PKA</parents>
			<probabilities>0.3012048192771085 0.06024096385542169 0.6385542168674699 0.9377777777777779 0.05777777777777778 0.004444444444444445 0.7608695652173912 0.08695652173913043 0.1521739130434783 0.6333333333333333 0.3333333333333334 0.03333333333333333 0.8284106891701828 0.170182841068917 0.00140646976090014 0.3333333333333333 0.08333333333333333 0.5833333333333334 0.3333333333333333 0.3333333333333333 0.3333333333333333 0.8266666666666665 0.1666666666666667 0.006666666666666665 0.3333333333333333 0.3333333333333333 0.3333333333333333</probabilities>
		</cpt>
		<cpt id="PIP3">
			<state id="x1" />
			<state id="x2" />
			<state id="x3" />
			<probabilities>0.212 0.456 0.332</probabilities>
		</cpt>
		<cpt id="Plcg">
			<state id="x1" />
			<state id="x2" />
			<state id="x3" />
			<parents>PIP3</parents>
			<probabilities>0.7641509433962264 0.04716981132075471 0.1886792452830189 0.8289473684210525 0.04824561403508772 0.1228070175438596 0.8313253012048193 0.1325301204819277 0.03614457831325302</probabilities>
		</cpt>
		<cpt id="PIP2">
			<state id="x1" />
			<state id="x2" />
			<state id="x3" />
			<parents>Plcg</parents>
			<probabilities>0.9568052159739202 0.0423797881010595 0.000814995925020375 0.7008547008547008 0.2905982905982906 0.008547008547008546 0.07407407407407407 0.4814814814814815 0.4444444444444444</probabilities>
		</cpt>
	</nodes>
	<extensions>
		<genie version="1.0" app="GeNIe This network was created in GeNIe Academic, which can be used for academic teaching and research purposes only" name="sachs1_500_g">
			<node id="PKC">
				<name>PKC</name>
				<interior color="e5f6f7" />
				<outline color="000080" />
				<font color="000000" name="Arial" size="8" />
				<position>490 10 562 58</position>
			</node>
			<node id="PKA">
				<name>PKA</name>
				<interior color="e5f6f7" />
				<outline color="000080" />
				<font color="000000" name="Arial" size="8" />
				<position>298 10 370 58</position>
			</node>
			<node id="Raf">
				<name>Raf</name>
				<interior color="e5f6f7" />
				<outline color="000080" />
				<font color="000000" name="Arial" size="8" />
				<position>10 10 82 58</position>
			</node>
			<node id="Mek">
				<name>Mek</name>
				<interior color="e5f6f7" />
				<outline color="000080" />
				<font color="000000" name="Arial" size="8" />
				<position>106 10 178 58</position>
			</node>
			<node id="Erk">
				<name>Erk</name>
				<interior color="e5f6f7" />
				<outline color="000080" />
				<font color="000000" name="Arial" size="8" />
				<position>202 10 274 58</position>
			</node>
			<node id="Akt">
				<name>Akt</name>
				<interior color="e5f6f7" />
				<outline color="000080" />
				<font color="000000" name="Arial" size="8" />
				<position>394 10 466 58</position>
			</node>
			<node id="Jnk">
				<name>Jnk</name>
				<interior color="e5f6f7" />
				<outline color="000080" />
				<font color="000000" name="Arial" size="8" />
				<position>394 74 466 122</position>
			</node>
			<node id="P38">
				<name>P38</name>
				<interior color="e5f6f7" />
				<outline color="000080" />
				<font color="000000" name="Arial" size="8" />
				<position>586 10 658 58</position>
			</node>
			<node id="Plcg">
				<name>Plcg</name>
				<interior color="e5f6f7" />
				<outline color="000080" />
				<font color="000000" name="Arial" size="8" />
				<position>106 74 178 122</position>
			</node>
			<node id="PIP3">
				<name>PIP3</name>
				<interior color="e5f6f7" />
				<outline color="000080" />
				<font color="000000" name="Arial" size="8" />
				<position>10 74 82 122</position>
			</node>
			<node id="PIP2">
				<name>PIP2</name>
				<interior color="e5f6f7" />
				<outline color="000080" />
				<font color="000000" name="Arial" size="8" />
				<position>202 74 274 122</position>
			</node>
			<textbox>
				<caption>Input file: sachs1_500.txt\nData rows: 500\nElapsed time: 0.047s\n\nLearning algorithm: Greedy ThickThinning\nAlgorithm parameters:\nMax parent count: 8\nNo background knowledge\n\nScore: -4011.12\nEM Log Likelihood: -3530.27</caption>
				<font color="000000" name="Arial" size="8" />
				<position>10 142 208 296</position>
			</textbox>
		</genie>
	</extensions>
</smile>
